{
  "num_inputs": 3,
  "layer_sizes": [
    3,
    4,
    4,
    1
  ],
  "layer_states": [
    [
      {
        "weights": [
          3.29209293741986,
          3.684565970818989,
          -10.332883361454194
        ],
        "bias": 0.0886017575818884
      },
      {
        "weights": [
          -1.3456863533572385,
          -0.946227627121653,
          8.748306048517906
        ],
        "bias": 0.2546520498060249
      },
      {
        "weights": [
          0.7822918240223488,
          0.16652740778297906,
          9.983527898944489
        ],
        "bias": 3.425250488986605
      }
    ],
    [
      {
        "weights": [
          1.7701963168989068,
          -1.519965367618818,
          2.137252068418645
        ],
        "bias": 5.442185514163647
      },
      {
        "weights": [
          -0.9618874628963093,
          2.7464590414296772,
          0.4448290176973316
        ],
        "bias": 4.0306526421872855
      },
      {
        "weights": [
          1.5806946564767448,
          2.7082066734584425,
          2.347443835827553
        ],
        "bias": -1.3947895657208143
      },
      {
        "weights": [
          -5.309021140440189,
          -2.049057923475966,
          -10.59443919193836
        ],
        "bias": -3.251055706229694
      }
    ],
    [
      {
        "weights": [
          -0.5522978363255521,
          -0.2778393974223161,
          0.14292313252110908,
          -0.0071593992370709725
        ],
        "bias": 1.2186274243884774
      },
      {
        "weights": [
          -0.8420054363529591,
          1.0129993224969025,
          1.3626642156136246,
          7.820761401986264
        ],
        "bias": -5.244872495522278
      },
      {
        "weights": [
          1.1320634931624542,
          0.6647996401652533,
          1.8455064054896142,
          0.06759794397716433
        ],
        "bias": 0.36469223130605916
      },
      {
        "weights": [
          -0.7623013316334258,
          0.5754685460408812,
          0.28125122804676617,
          -0.12985962406844853
        ],
        "bias": -1.771101915377462
      }
    ],
    [
      {
        "weights": [
          4.69988470896813,
          11.767387348505725,
          -2.079977641970484,
          -2.2999100115687328
        ],
        "bias": -1.0213360438626058
      }
    ]
  ]
}